<?xml version="1.0"?>
<opencv_storage>
<myhaar type_id="opencv-haar-classifier">
  <size>
    24 24</size>
  <stages>
    <_>
      <trees>
        <_>
          <_>
            <feature>
              <rects>
                <_>
                  6 14 4 6 -1.</_>
                <_>
                  6 14 4 3 2.</_></rects>
              <tilted>1</tilted></feature>
            <threshold>8.0894166603684425e-003</threshold>
            <left_val>-0.7869626879692078</left_val>
            <right_val>0.5604003071784973</right_val></_></_>
        <_>
          <_>
            <feature>
              <rects>
                <_>
                  0 9 24 8 -1.</_>
                <_>
                  6 9 12 8 2.</_></rects>
              <tilted>0</tilted></feature>
            <threshold>0.1767257004976273</threshold>
            <left_val>-0.4557298123836517</left_val>
            <right_val>0.8100882172584534</right_val></_></_>
        <_>
          <_>
            <feature>
              <rects>
                <_>
                  4 0 9 20 -1.</_>
                <_>
                  4 10 9 10 2.</_></rects>
              <tilted>0</tilted></feature>
            <threshold>0.1047677025198937</threshold>
            <left_val>-0.6965665221214294</left_val>
            <right_val>0.4904044866561890</right_val></_></_>
        <_>
          <_>
            <feature>
              <rects>
                <_>
                  8 22 15 2 -1.</_>
                <_>
                  8 23 15 1 2.</_></rects>
              <tilted>0</tilted></feature>
            <threshold>-4.7476622276008129e-003</threshold>
            <left_val>0.6311085820198059</left_val>
            <right_val>-0.2967338860034943</right_val></_></_>
        <_>
          <_>
            <feature>
              <rects>
                <_>
                  5 12 2 10 -1.</_>
                <_>
                  5 12 1 5 2.</_>
                <_>
                  6 17 1 5 2.</_></rects>
              <tilted>0</tilted></feature>
            <threshold>-1.5610159607604146e-003</threshold>
            <left_val>0.7559459209442139</left_val>
            <right_val>-0.3420206010341644</right_val></_></_></trees>
      <stage_threshold>-0.3028081059455872</stage_threshold>
      <parent>-1</parent>
      <next>-1</next></_>
    <_>
      <trees>
        <_>
          <_>
            <feature>
              <rects>
                <_>
                  0 3 24 21 -1.</_>
                <_>
                  8 10 8 7 9.</_></rects>
              <tilted>0</tilted></feature>
            <threshold>0.8198198080062866</threshold>
            <left_val>-0.4076165854930878</left_val>
            <right_val>0.7998417019844055</right_val></_></_>
        <_>
          <_>
            <feature>
              <rects>
                <_>
                  0 22 24 2 -1.</_>
                <_>
                  0 23 24 1 2.</_></rects>
              <tilted>0</tilted></feature>
            <threshold>-1.0804530465975404e-003</threshold>
            <left_val>0.4588002860546112</left_val>
            <right_val>-0.4968293011188507</right_val></_></_>
        <_>
          <_>
            <feature>
              <rects>
                <_>
                  3 0 4 3 -1.</_>
                <_>
                  4 0 2 3 2.</_></rects>
              <tilted>0</tilted></feature>
            <threshold>-6.6528067691251636e-005</threshold>
            <left_val>0.4716939032077789</left_val>
            <right_val>-0.4784435927867889</right_val></_></_>
        <_>
          <_>
            <feature>
              <rects>
                <_>
                  19 19 1 4 -1.</_>
                <_>
                  18 20 1 2 2.</_></rects>
              <tilted>1</tilted></feature>
            <threshold>4.2738071642816067e-003</threshold>
            <left_val>-0.0913232490420341</left_val>
            <right_val>0.5559203028678894</right_val></_></_>
        <_>
          <_>
            <feature>
              <rects>
                <_>
                  0 0 16 8 -1.</_>
                <_>
                  0 4 16 4 2.</_></rects>
              <tilted>0</tilted></feature>
            <threshold>0.0184281002730131</threshold>
            <left_val>-0.7166352272033691</left_val>
            <right_val>0.2877019941806793</right_val></_></_>
        <_>
          <_>
            <feature>
              <rects>
                <_>
                  17 19 3 5 -1.</_>
                <_>
                  18 19 1 5 3.</_></rects>
              <tilted>0</tilted></feature>
            <threshold>4.9502630718052387e-003</threshold>
            <left_val>-0.0533700101077557</left_val>
            <right_val>0.8866308927536011</right_val></_></_>
        <_>
          <_>
            <feature>
              <rects>
                <_>
                  11 6 13 4 -1.</_>
                <_>
                  10 7 13 2 2.</_></rects>
              <tilted>1</tilted></feature>
            <threshold>3.7153880111873150e-003</threshold>
            <left_val>-0.4795571863651276</left_val>
            <right_val>0.4752272963523865</right_val></_></_></trees>
      <stage_threshold>-0.7693002820014954</stage_threshold>
      <parent>0</parent>
      <next>-1</next></_>
    <_>
      <trees>
        <_>
          <_>
            <feature>
              <rects>
                <_>
                  0 7 24 13 -1.</_>
                <_>
                  6 7 12 13 2.</_></rects>
              <tilted>0</tilted></feature>
            <threshold>0.2228014022111893</threshold>
            <left_val>-0.4536182880401611</left_val>
            <right_val>0.4297895133495331</right_val></_></_>
        <_>
          <_>
            <feature>
              <rects>
                <_>
                  2 12 21 12 -1.</_>
                <_>
                  2 16 21 4 3.</_></rects>
              <tilted>0</tilted></feature>
            <threshold>0.0477369911968708</threshold>
            <left_val>-0.4502277076244354</left_val>
            <right_val>0.4506716132164002</right_val></_></_>
        <_>
          <_>
            <feature>
              <rects>
                <_>
                  3 18 4 5 -1.</_>
                <_>
                  4 18 2 5 2.</_></rects>
              <tilted>0</tilted></feature>
            <threshold>2.7675409801304340e-003</threshold>
            <left_val>-0.2558937966823578</left_val>
            <right_val>0.7182294726371765</right_val></_></_>
        <_>
          <_>
            <feature>
              <rects>
                <_>
                  19 1 1 2 -1.</_>
                <_>
                  19 2 1 1 2.</_></rects>
              <tilted>0</tilted></feature>
            <threshold>1.4557120266545098e-005</threshold>
            <left_val>-0.4932425916194916</left_val>
            <right_val>0.3575350940227509</right_val></_></_>
        <_>
          <_>
            <feature>
              <rects>
                <_>
                  10 19 2 2 -1.</_>
                <_>
                  10 19 1 1 2.</_>
                <_>
                  11 20 1 1 2.</_></rects>
              <tilted>0</tilted></feature>
            <threshold>-1.5130230167414993e-005</threshold>
            <left_val>0.5647907257080078</left_val>
            <right_val>-0.3587659895420075</right_val></_></_></trees>
      <stage_threshold>-0.2775628864765167</stage_threshold>
      <parent>1</parent>
      <next>-1</next></_>
    <_>
      <trees>
        <_>
          <_>
            <feature>
              <rects>
                <_>
                  0 4 22 12 -1.</_>
                <_>
                  0 10 22 6 2.</_></rects>
              <tilted>0</tilted></feature>
            <threshold>0.0792116820812225</threshold>
            <left_val>-0.6518555283546448</left_val>
            <right_val>0.3170590102672577</right_val></_></_>
        <_>
          <_>
            <feature>
              <rects>
                <_>
                  15 9 3 1 -1.</_>
                <_>
                  16 9 1 1 3.</_></rects>
              <tilted>0</tilted></feature>
            <threshold>1.3615579809993505e-003</threshold>
            <left_val>-0.0892379134893417</left_val>
            <right_val>0.6539378166198731</right_val></_></_>
        <_>
          <_>
            <feature>
              <rects>
                <_>
                  1 19 2 2 -1.</_>
                <_>
                  1 19 1 1 2.</_>
                <_>
                  2 20 1 1 2.</_></rects>
              <tilted>0</tilted></feature>
            <threshold>-1.7638269127928652e-005</threshold>
            <left_val>0.5746449828147888</left_val>
            <right_val>-0.3233466148376465</right_val></_></_>
        <_>
          <_>
            <feature>
              <rects>
                <_>
                  10 20 12 3 -1.</_>
                <_>
                  14 21 4 1 9.</_></rects>
              <tilted>0</tilted></feature>
            <threshold>0.0380304306745529</threshold>
            <left_val>-0.1002665013074875</left_val>
            <right_val>0.6842601895332336</right_val></_></_>
        <_>
          <_>
            <feature>
              <rects>
                <_>
                  2 5 16 19 -1.</_>
                <_>
                  6 5 8 19 2.</_></rects>
              <tilted>0</tilted></feature>
            <threshold>0.1602918952703476</threshold>
            <left_val>-0.3367122113704681</left_val>
            <right_val>0.5566998720169067</right_val></_></_>
        <_>
          <_>
            <feature>
              <rects>
                <_>
                  10 4 6 10 -1.</_>
                <_>
                  12 4 2 10 3.</_></rects>
              <tilted>0</tilted></feature>
            <threshold>-9.9710039794445038e-003</threshold>
            <left_val>0.6339033246040344</left_val>
            <right_val>-0.0667643472552300</right_val></_></_>
        <_>
          <_>
            <feature>
              <rects>
                <_>
                  1 17 2 2 -1.</_>
                <_>
                  1 17 1 1 2.</_>
                <_>
                  2 18 1 1 2.</_></rects>
              <tilted>0</tilted></feature>
            <threshold>-1.5612889910698868e-005</threshold>
            <left_val>0.5284612774848938</left_val>
            <right_val>-0.3363010883331299</right_val></_></_>
        <_>
          <_>
            <feature>
              <rects>
                <_>
                  16 16 2 2 -1.</_>
                <_>
                  17 16 1 1 2.</_>
                <_>
                  16 17 1 1 2.</_></rects>
              <tilted>0</tilted></feature>
            <threshold>1.0522089432924986e-003</threshold>
            <left_val>-0.0553795397281647</left_val>
            <right_val>1.</right_val></_></_></trees>
      <stage_threshold>-0.2064224928617477</stage_threshold>
      <parent>2</parent>
      <next>-1</next></_>
    <_>
      <trees>
        <_>
          <_>
            <feature>
              <rects>
                <_>
                  5 18 3 6 -1.</_>
                <_>
                  5 20 3 2 3.</_></rects>
              <tilted>0</tilted></feature>
            <threshold>4.4704149477183819e-003</threshold>
            <left_val>-0.3171983957290649</left_val>
            <right_val>0.7561203241348267</right_val></_></_>
        <_>
          <_>
            <feature>
              <rects>
                <_>
                  18 0 6 18 -1.</_>
                <_>
                  20 2 2 18 3.</_></rects>
              <tilted>1</tilted></feature>
            <threshold>-6.1706420965492725e-003</threshold>
            <left_val>0.4209200143814087</left_val>
            <right_val>-0.0479763410985470</right_val></_></_>
        <_>
          <_>
            <feature>
              <rects>
                <_>
                  6 0 18 6 -1.</_>
                <_>
                  4 2 18 2 3.</_></rects>
              <tilted>1</tilted></feature>
            <threshold>0.0649869590997696</threshold>
            <left_val>-0.2648800909519196</left_val>
            <right_val>0.8673564791679382</right_val></_></_>
        <_>
          <_>
            <feature>
              <rects>
                <_>
                  20 6 3 14 -1.</_>
                <_>
                  21 7 1 14 3.</_></rects>
              <tilted>1</tilted></feature>
            <threshold>-6.6501260735094547e-003</threshold>
            <left_val>0.7524300217628479</left_val>
            <right_val>-0.0539027601480484</right_val></_></_>
        <_>
          <_>
            <feature>
              <rects>
                <_>
                  1 21 18 3 -1.</_>
                <_>
                  1 22 18 1 3.</_></rects>
              <tilted>0</tilted></feature>
            <threshold>2.2549519781023264e-003</threshold>
            <left_val>-0.3209910094738007</left_val>
            <right_val>0.6323655843734741</right_val></_></_>
        <_>
          <_>
            <feature>
              <rects>
                <_>
                  16 12 2 2 -1.</_>
                <_>
                  17 12 1 1 2.</_>
                <_>
                  16 13 1 1 2.</_></rects>
              <tilted>0</tilted></feature>
            <threshold>-1.5130230167414993e-005</threshold>
            <left_val>0.4392361044883728</left_val>
            <right_val>-0.1788336038589478</right_val></_></_>
        <_>
          <_>
            <feature>
              <rects>
                <_>
                  1 15 4 2 -1.</_>
                <_>
                  1 16 4 1 2.</_></rects>
              <tilted>0</tilted></feature>
            <threshold>9.8952827102039009e-005</threshold>
            <left_val>-0.4458015859127045</left_val>
            <right_val>0.4274506866931915</right_val></_></_>
        <_>
          <_>
            <feature>
              <rects>
                <_>
                  9 22 6 1 -1.</_>
                <_>
                  11 22 2 1 3.</_></rects>
              <tilted>0</tilted></feature>
            <threshold>-2.5642469990998507e-003</threshold>
            <left_val>0.9599118232727051</left_val>
            <right_val>-0.1474235951900482</right_val></_></_>
        <_>
          <_>
            <feature>
              <rects>
                <_>
                  4 7 2 2 -1.</_>
                <_>
                  4 7 1 1 2.</_>
                <_>
                  5 8 1 1 2.</_></rects>
              <tilted>0</tilted></feature>
            <threshold>-1.4108730283624027e-005</threshold>
            <left_val>0.6244323253631592</left_val>
            <right_val>-0.3236891031265259</right_val></_></_></trees>
      <stage_threshold>-0.3410071134567261</stage_threshold>
      <parent>3</parent>
      <next>-1</next></_>
    <_>
      <trees>
        <_>
          <_>
            <feature>
              <rects>
                <_>
                  0 13 24 11 -1.</_>
                <_>
                  6 13 12 11 2.</_></rects>
              <tilted>0</tilted></feature>
            <threshold>0.0765809118747711</threshold>
            <left_val>-0.7335847020149231</left_val>
            <right_val>0.3655681908130646</right_val></_></_>
        <_>
          <_>
            <feature>
              <rects>
                <_>
                  16 2 2 2 -1.</_>
                <_>
                  16 2 1 2 2.</_></rects>
              <tilted>0</tilted></feature>
            <threshold>1.4699589883093722e-005</threshold>
            <left_val>-0.1598376035690308</left_val>
            <right_val>0.0633921027183533</right_val></_></_>
        <_>
          <_>
            <feature>
              <rects>
                <_>
                  6 2 2 2 -1.</_>
                <_>
                  7 2 1 2 2.</_></rects>
              <tilted>0</tilted></feature>
            <threshold>1.4108730283624027e-005</threshold>
            <left_val>-0.4708634018898010</left_val>
            <right_val>0.3392552137374878</right_val></_></_>
        <_>
          <_>
            <feature>
              <rects>
                <_>
                  14 2 7 10 -1.</_>
                <_>
                  14 7 7 5 2.</_></rects>
              <tilted>0</tilted></feature>
            <threshold>4.2671279516071081e-004</threshold>
            <left_val>-0.4360746145248413</left_val>
            <right_val>0.1238579973578453</right_val></_></_>
        <_>
          <_>
            <feature>
              <rects>
                <_>
                  1 4 13 20 -1.</_>
                <_>
                  1 9 13 10 2.</_></rects>
              <tilted>0</tilted></feature>
            <threshold>0.0836084187030792</threshold>
            <left_val>-0.5203710794448853</left_val>
            <right_val>0.3354875147342682</right_val></_></_>
        <_>
          <_>
            <feature>
              <rects>
                <_>
                  10 19 13 2 -1.</_>
                <_>
                  10 20 13 1 2.</_></rects>
              <tilted>0</tilted></feature>
            <threshold>1.5773900086060166e-003</threshold>
            <left_val>-0.3424558937549591</left_val>
            <right_val>0.4268589913845062</right_val></_></_>
        <_>
          <_>
            <feature>
              <rects>
                <_>
                  2 0 6 17 -1.</_>
                <_>
                  5 0 3 17 2.</_></rects>
              <tilted>0</tilted></feature>
            <threshold>1.4404190005734563e-003</threshold>
            <left_val>-0.8283950090408325</left_val>
            <right_val>0.2838788032531738</right_val></_></_>
        <_>
          <_>
            <feature>
              <rects>
                <_>
                  16 16 1 3 -1.</_>
                <_>
                  16 17 1 1 3.</_></rects>
              <tilted>0</tilted></feature>
            <threshold>1.5748990335850976e-005</threshold>
            <left_val>-0.4370621144771576</left_val>
            <right_val>0.2342773973941803</right_val></_></_>
        <_>
          <_>
            <feature>
              <rects>
                <_>
                  3 6 1 2 -1.</_>
                <_>
                  3 7 1 1 2.</_></rects>
              <tilted>0</tilted></feature>
            <threshold>1.5856670870562084e-005</threshold>
            <left_val>-0.7181997895240784</left_val>
            <right_val>0.4929291903972626</right_val></_></_>
        <_>
          <_>
            <feature>
              <rects>
                <_>
                  11 11 6 12 -1.</_>
                <_>
                  13 15 2 4 9.</_></rects>
              <tilted>0</tilted></feature>
            <threshold>0.0142157599329948</threshold>
            <left_val>-0.6649004220962524</left_val>
            <right_val>0.3061620891094208</right_val></_></_>
        <_>
          <_>
            <feature>
              <rects>
                <_>
                  2 0 4 12 -1.</_>
                <_>
                  2 0 2 6 2.</_>
                <_>
                  4 6 2 6 2.</_></rects>
              <tilted>0</tilted></feature>
            <threshold>1.5771940525155514e-004</threshold>
            <left_val>-0.8518357872962952</left_val>
            <right_val>0.5380423069000244</right_val></_></_>
        <_>
          <_>
            <feature>
              <rects>
                <_>
                  10 6 12 3 -1.</_>
                <_>
                  14 7 4 1 9.</_></rects>
              <tilted>0</tilted></feature>
            <threshold>1.9328270573168993e-003</threshold>
            <left_val>-0.7957255244255066</left_val>
            <right_val>0.2186115980148315</right_val></_></_>
        <_>
          <_>
            <feature>
              <rects>
                <_>
                  10 20 1 3 -1.</_>
                <_>
                  9 21 1 1 3.</_></rects>
              <tilted>1</tilted></feature>
            <threshold>2.0774839867954142e-005</threshold>
            <left_val>-0.9138401746749878</left_val>
            <right_val>0.7584279775619507</right_val></_></_>
        <_>
          <_>
            <feature>
              <rects>
                <_>
                  13 12 5 9 -1.</_>
                <_>
                  13 15 5 3 3.</_></rects>
              <tilted>0</tilted></feature>
            <threshold>-6.9635687395930290e-004</threshold>
            <left_val>0.8155288100242615</left_val>
            <right_val>-0.8989952802658081</right_val></_></_>
        <_>
          <_>
            <feature>
              <rects>
                <_>
                  7 9 10 15 -1.</_>
                <_>
                  7 14 10 5 3.</_></rects>
              <tilted>0</tilted></feature>
            <threshold>6.1892811208963394e-003</threshold>
            <left_val>-0.9624829292297363</left_val>
            <right_val>0.7235460281372070</right_val></_></_>
        <_>
          <_>
            <feature>
              <rects>
                <_>
                  12 9 2 4 -1.</_>
                <_>
                  12 10 2 2 2.</_></rects>
              <tilted>0</tilted></feature>
            <threshold>3.5948829463450238e-005</threshold>
            <left_val>-0.9188165068626404</left_val>
            <right_val>0.5868375897407532</right_val></_></_>
        <_>
          <_>
            <feature>
              <rects>
                <_>
                  12 3 12 8 -1.</_>
                <_>
                  10 5 12 4 2.</_></rects>
              <tilted>1</tilted></feature>
            <threshold>0.0129386195912957</threshold>
            <left_val>-1.</left_val>
            <right_val>0.7823811769485474</right_val></_></_>
        <_>
          <_>
            <feature>
              <rects>
                <_>
                  22 0 2 18 -1.</_>
                <_>
                  23 0 1 9 2.</_>
                <_>
                  22 9 1 9 2.</_></rects>
              <tilted>0</tilted></feature>
            <threshold>-2.3242430761456490e-003</threshold>
            <left_val>1.</left_val>
            <right_val>-0.9972174167633057</right_val></_></_></trees>
      <stage_threshold>-1.8054709434509277</stage_threshold>
      <parent>4</parent>
      <next>-1</next></_>
    <_>
      <trees>
        <_>
          <_>
            <feature>
              <rects>
                <_>
                  0 12 10 12 -1.</_>
                <_>
                  5 12 5 12 2.</_></rects>
              <tilted>0</tilted></feature>
            <threshold>0.0139700099825859</threshold>
            <left_val>-0.8671653270721436</left_val>
            <right_val>0.5341348052024841</right_val></_></_>
        <_>
          <_>
            <feature>
              <rects>
                <_>
                  11 0 12 2 -1.</_>
                <_>
                  11 1 12 1 2.</_></rects>
              <tilted>0</tilted></feature>
            <threshold>2.1335719793569297e-004</threshold>
            <left_val>-0.7187950015068054</left_val>
            <right_val>0.2490440011024475</right_val></_></_>
        <_>
          <_>
            <feature>
              <rects>
                <_>
                  1 0 20 1 -1.</_>
                <_>
                  1 0 10 1 2.</_></rects>
              <tilted>1</tilted></feature>
            <threshold>-0.0148801002651453</threshold>
            <left_val>0.3781644105911255</left_val>
            <right_val>-0.9026116132736206</right_val></_></_>
        <_>
          <_>
            <feature>
              <rects>
                <_>
                  20 10 2 7 -1.</_>
                <_>
                  20 10 1 7 2.</_></rects>
              <tilted>0</tilted></feature>
            <threshold>5.9749650972662494e-005</threshold>
            <left_val>-0.6336163282394409</left_val>
            <right_val>0.2067684978246689</right_val></_></_>
        <_>
          <_>
            <feature>
              <rects>
                <_>
                  3 3 4 4 -1.</_>
                <_>
                  5 3 2 4 2.</_></rects>
              <tilted>0</tilted></feature>
            <threshold>1.4537580136675388e-004</threshold>
            <left_val>-0.7665740847587585</left_val>
            <right_val>0.4562478065490723</right_val></_></_>
        <_>
          <_>
            <feature>
              <rects>
                <_>
                  19 0 4 2 -1.</_>
                <_>
                  19 1 4 1 2.</_></rects>
              <tilted>0</tilted></feature>
            <threshold>2.3156770112109371e-005</threshold>
            <left_val>-0.7154198288917542</left_val>
            <right_val>0.0914698764681816</right_val></_></_>
        <_>
          <_>
            <feature>
              <rects>
                <_>
                  7 12 2 6 -1.</_>
                <_>
                  7 12 2 3 2.</_></rects>
              <tilted>1</tilted></feature>
            <threshold>4.7000451013445854e-004</threshold>
            <left_val>-0.8682916760444641</left_val>
            <right_val>0.5011584758758545</right_val></_></_>
        <_>
          <_>
            <feature>
              <rects>
                <_>
                  18 19 1 4 -1.</_>
                <_>
                  18 20 1 2 2.</_></rects>
              <tilted>0</tilted></feature>
            <threshold>1.0366360220359638e-004</threshold>
            <left_val>-0.8378404974937439</left_val>
            <right_val>0.3128061890602112</right_val></_></_>
        <_>
          <_>
            <feature>
              <rects>
                <_>
                  12 0 10 12 -1.</_>
                <_>
                  12 0 5 12 2.</_></rects>
              <tilted>1</tilted></feature>
            <threshold>-3.9679938927292824e-003</threshold>
            <left_val>0.4448105096817017</left_val>
            <right_val>-0.9597272276878357</right_val></_></_>
        <_>
          <_>
            <feature>
              <rects>
                <_>
                  13 0 2 14 -1.</_>
                <_>
                  13 0 1 14 2.</_></rects>
              <tilted>0</tilted></feature>
            <threshold>-2.1255889441817999e-003</threshold>
            <left_val>0.6618849039077759</left_val>
            <right_val>-0.5457788109779358</right_val></_></_>
        <_>
          <_>
            <feature>
              <rects>
                <_>
                  1 4 6 6 -1.</_>
                <_>
                  3 6 2 2 9.</_></rects>
              <tilted>0</tilted></feature>
            <threshold>6.8198227381799370e-005</threshold>
            <left_val>-0.7282192111015320</left_val>
            <right_val>0.7951614856719971</right_val></_></_>
        <_>
          <_>
            <feature>
              <rects>
                <_>
                  12 1 9 10 -1.</_>
                <_>
                  15 4 3 10 3.</_></rects>
              <tilted>1</tilted></feature>
            <threshold>9.0590035542845726e-003</threshold>
            <left_val>-0.7610477209091187</left_val>
            <right_val>0.3255679011344910</right_val></_></_>
        <_>
          <_>
            <feature>
              <rects>
                <_>
                  5 9 8 2 -1.</_>
                <_>
                  5 9 4 1 2.</_>
                <_>
                  9 10 4 1 2.</_></rects>
              <tilted>0</tilted></feature>
            <threshold>3.5276530979899690e-005</threshold>
            <left_val>-0.9377416968345642</left_val>
            <right_val>0.5977157950401306</right_val></_></_>
        <_>
          <_>
            <feature>
              <rects>
                <_>
                  10 23 6 1 -1.</_>
                <_>
                  10 23 3 1 2.</_></rects>
              <tilted>0</tilted></feature>
            <threshold>5.6442082859575748e-004</threshold>
            <left_val>-0.8495141863822937</left_val>
            <right_val>0.3634316921234131</right_val></_></_>
        <_>
          <_>
            <feature>
              <rects>
                <_>
                  2 22 16 1 -1.</_>
                <_>
                  10 22 8 1 2.</_></rects>
              <tilted>0</tilted></feature>
            <threshold>1.6650099496473558e-005</threshold>
            <left_val>-0.9555072188377380</left_val>
            <right_val>0.8279855847358704</right_val></_></_>
        <_>
          <_>
            <feature>
              <rects>
                <_>
                  10 21 4 3 -1.</_>
                <_>
                  11 21 2 3 2.</_></rects>
              <tilted>0</tilted></feature>
            <threshold>-5.2542698540491983e-005</threshold>
            <left_val>0.9218627810478210</left_val>
            <right_val>-0.9965000152587891</right_val></_></_>
        <_>
          <_>
            <feature>
              <rects>
                <_>
                  5 8 1 6 -1.</_>
                <_>
                  5 11 1 3 2.</_></rects>
              <tilted>0</tilted></feature>
            <threshold>7.2512979386374354e-005</threshold>
            <left_val>-0.9607983231544495</left_val>
            <right_val>0.6487712264060974</right_val></_></_>
        <_>
          <_>
            <feature>
              <rects>
                <_>
                  13 4 6 11 -1.</_>
                <_>
                  15 6 2 11 3.</_></rects>
              <tilted>1</tilted></feature>
            <threshold>1.3084750389680266e-003</threshold>
            <left_val>-0.9642754197120667</left_val>
            <right_val>0.2763524949550629</right_val></_></_>
        <_>
          <_>
            <feature>
              <rects>
                <_>
                  5 2 14 4 -1.</_>
                <_>
                  4 3 14 2 2.</_></rects>
              <tilted>1</tilted></feature>
            <threshold>2.2805259504821151e-004</threshold>
            <left_val>-0.9955400824546814</left_val>
            <right_val>1.</right_val></_></_>
        <_>
          <_>
            <feature>
              <rects>
                <_>
                  23 0 1 2 -1.</_>
                <_>
                  23 1 1 1 2.</_></rects>
              <tilted>0</tilted></feature>
            <threshold>1.9516790416673757e-005</threshold>
            <left_val>-1.</left_val>
            <right_val>1.</right_val></_></_>
        <_>
          <_>
            <feature>
              <rects>
                <_>
                  0 0 2 1 -1.</_>
                <_>
                  1 0 1 1 2.</_></rects>
              <tilted>0</tilted></feature>
            <threshold>0.</threshold>
            <left_val>0.</left_val>
            <right_val>-1.</right_val></_></_>
        <_>
          <_>
            <feature>
              <rects>
                <_>
                  15 2 9 7 -1.</_>
                <_>
                  18 2 3 7 3.</_></rects>
              <tilted>0</tilted></feature>
            <threshold>-6.8887327797710896e-003</threshold>
            <left_val>1.</left_val>
            <right_val>-0.9716308712959290</right_val></_></_>
        <_>
          <_>
            <feature>
              <rects>
                <_>
                  3 12 7 12 -1.</_>
                <_>
                  3 15 7 6 2.</_></rects>
              <tilted>0</tilted></feature>
            <threshold>3.2884260872378945e-004</threshold>
            <left_val>-1.</left_val>
            <right_val>1.</right_val></_></_>
        <_>
          <_>
            <feature>
              <rects>
                <_>
                  16 0 8 3 -1.</_>
                <_>
                  16 0 4 3 2.</_></rects>
              <tilted>0</tilted></feature>
            <threshold>-4.7569999878760427e-005</threshold>
            <left_val>1.</left_val>
            <right_val>-1.</right_val></_></_>
        <_>
          <_>
            <feature>
              <rects>
                <_>
                  12 6 11 4 -1.</_>
                <_>
                  11 7 11 2 2.</_></rects>
              <tilted>1</tilted></feature>
            <threshold>3.1683619599789381e-003</threshold>
            <left_val>-1.</left_val>
            <right_val>0.9152082204818726</right_val></_></_>
        <_>
          <_>
            <feature>
              <rects>
                <_>
                  22 0 2 1 -1.</_>
                <_>
                  22 0 1 1 2.</_></rects>
              <tilted>0</tilted></feature>
            <threshold>-6.6594581585377455e-004</threshold>
            <left_val>0.</left_val>
            <right_val>-1.</right_val></_></_>
        <_>
          <_>
            <feature>
              <rects>
                <_>
                  7 11 6 12 -1.</_>
                <_>
                  9 15 2 4 9.</_></rects>
              <tilted>0</tilted></feature>
            <threshold>2.6271349634043872e-004</threshold>
            <left_val>-1.</left_val>
            <right_val>1.0000419616699219</right_val></_></_>
        <_>
          <_>
            <feature>
              <rects>
                <_>
                  22 0 2 1 -1.</_>
                <_>
                  22 0 1 1 2.</_></rects>
              <tilted>0</tilted></feature>
            <threshold>0.</threshold>
            <left_val>0.</left_val>
            <right_val>-1.</right_val></_></_>
        <_>
          <_>
            <feature>
              <rects>
                <_>
                  0 14 16 6 -1.</_>
                <_>
                  8 14 8 6 2.</_></rects>
              <tilted>0</tilted></feature>
            <threshold>1.9473480060696602e-003</threshold>
            <left_val>-1.</left_val>
            <right_val>1.0000959634780884</right_val></_></_>
        <_>
          <_>
            <feature>
              <rects>
                <_>
                  22 0 2 1 -1.</_>
                <_>
                  22 0 1 1 2.</_></rects>
              <tilted>0</tilted></feature>
            <threshold>0.</threshold>
            <left_val>0.</left_val>
            <right_val>-1.</right_val></_></_>
        <_>
          <_>
            <feature>
              <rects>
                <_>
                  3 6 18 9 -1.</_>
                <_>
                  9 9 6 3 9.</_></rects>
              <tilted>0</tilted></feature>
            <threshold>0.0228409301489592</threshold>
            <left_val>-1.</left_val>
            <right_val>0.9999917745590210</right_val></_></_>
        <_>
          <_>
            <feature>
              <rects>
                <_>
                  22 0 2 1 -1.</_>
                <_>
                  22 0 1 1 2.</_></rects>
              <tilted>0</tilted></feature>
            <threshold>0.</threshold>
            <left_val>0.</left_val>
            <right_val>-1.</right_val></_></_>
        <_>
          <_>
            <feature>
              <rects>
                <_>
                  0 0 2 5 -1.</_>
                <_>
                  1 0 1 5 2.</_></rects>
              <tilted>0</tilted></feature>
            <threshold>4.6075998398009688e-005</threshold>
            <left_val>-1.</left_val>
            <right_val>1.</right_val></_></_>
        <_>
          <_>
            <feature>
              <rects>
                <_>
                  22 0 2 1 -1.</_>
                <_>
                  22 0 1 1 2.</_></rects>
              <tilted>0</tilted></feature>
            <threshold>0.</threshold>
            <left_val>0.</left_val>
            <right_val>-1.</right_val></_></_>
        <_>
          <_>
            <feature>
              <rects>
                <_>
                  0 0 2 1 -1.</_>
                <_>
                  1 0 1 1 2.</_></rects>
              <tilted>0</tilted></feature>
            <threshold>0.</threshold>
            <left_val>0.</left_val>
            <right_val>-1.</right_val></_></_>
        <_>
          <_>
            <feature>
              <rects>
                <_>
                  19 6 1 6 -1.</_>
                <_>
                  19 6 1 3 2.</_></rects>
              <tilted>1</tilted></feature>
            <threshold>-2.7952919481322169e-004</threshold>
            <left_val>1.</left_val>
            <right_val>-0.9908108711242676</right_val></_></_>
        <_>
          <_>
            <feature>
              <rects>
                <_>
                  10 0 4 6 -1.</_>
                <_>
                  10 3 4 3 2.</_></rects>
              <tilted>0</tilted></feature>
            <threshold>8.3046259533148259e-005</threshold>
            <left_val>-1.</left_val>
            <right_val>1.</right_val></_></_>
        <_>
          <_>
            <feature>
              <rects>
                <_>
                  23 0 1 3 -1.</_>
                <_>
                  23 1 1 1 3.</_></rects>
              <tilted>0</tilted></feature>
            <threshold>5.1469560276018456e-005</threshold>
            <left_val>-1.</left_val>
            <right_val>1.</right_val></_></_>
        <_>
          <_>
            <feature>
              <rects>
                <_>
                  0 0 2 1 -1.</_>
                <_>
                  1 0 1 1 2.</_></rects>
              <tilted>0</tilted></feature>
            <threshold>0.</threshold>
            <left_val>0.</left_val>
            <right_val>-1.</right_val></_></_>
        <_>
          <_>
            <feature>
              <rects>
                <_>
                  7 10 16 1 -1.</_>
                <_>
                  7 10 8 1 2.</_></rects>
              <tilted>0</tilted></feature>
            <threshold>9.0071721933782101e-004</threshold>
            <left_val>-0.9757766127586365</left_val>
            <right_val>0.8777667880058289</right_val></_></_>
        <_>
          <_>
            <feature>
              <rects>
                <_>
                  0 0 1 3 -1.</_>
                <_>
                  0 1 1 1 3.</_></rects>
              <tilted>0</tilted></feature>
            <threshold>4.1523129766574129e-005</threshold>
            <left_val>-1.</left_val>
            <right_val>1.</right_val></_></_>
        <_>
          <_>
            <feature>
              <rects>
                <_>
                  22 0 2 1 -1.</_>
                <_>
                  22 0 1 1 2.</_></rects>
              <tilted>0</tilted></feature>
            <threshold>0.</threshold>
            <left_val>0.</left_val>
            <right_val>-1.</right_val></_></_>
        <_>
          <_>
            <feature>
              <rects>
                <_>
                  0 0 2 1 -1.</_>
                <_>
                  1 0 1 1 2.</_></rects>
              <tilted>0</tilted></feature>
            <threshold>5.2542698540491983e-005</threshold>
            <left_val>-1.</left_val>
            <right_val>1.</right_val></_></_>
        <_>
          <_>
            <feature>
              <rects>
                <_>
                  22 0 2 1 -1.</_>
                <_>
                  22 0 1 1 2.</_></rects>
              <tilted>0</tilted></feature>
            <threshold>0.</threshold>
            <left_val>0.</left_val>
            <right_val>-1.</right_val></_></_>
        <_>
          <_>
            <feature>
              <rects>
                <_>
                  0 0 2 4 -1.</_>
                <_>
                  0 0 1 2 2.</_>
                <_>
                  1 2 1 2 2.</_></rects>
              <tilted>0</tilted></feature>
            <threshold>-1.3659750402439386e-004</threshold>
            <left_val>1.</left_val>
            <right_val>-1.</right_val></_></_>
        <_>
          <_>
            <feature>
              <rects>
                <_>
                  23 3 1 10 -1.</_>
                <_>
                  23 3 1 5 2.</_></rects>
              <tilted>1</tilted></feature>
            <threshold>-2.3294100537896156e-004</threshold>
            <left_val>1.</left_val>
            <right_val>-1.</right_val></_></_>
        <_>
          <_>
            <feature>
              <rects>
                <_>
                  6 3 3 21 -1.</_>
                <_>
                  7 10 1 7 9.</_></rects>
              <tilted>0</tilted></feature>
            <threshold>2.2528041154146194e-003</threshold>
            <left_val>-1.</left_val>
            <right_val>1.</right_val></_></_>
        <_>
          <_>
            <feature>
              <rects>
                <_>
                  21 0 3 4 -1.</_>
                <_>
                  22 0 1 4 3.</_></rects>
              <tilted>0</tilted></feature>
            <threshold>-2.2401789465220645e-005</threshold>
            <left_val>1.</left_val>
            <right_val>-1.</right_val></_></_>
        <_>
          <_>
            <feature>
              <rects>
                <_>
                  0 0 2 1 -1.</_>
                <_>
                  1 0 1 1 2.</_></rects>
              <tilted>0</tilted></feature>
            <threshold>0.</threshold>
            <left_val>0.</left_val>
            <right_val>-1.</right_val></_></_>
        <_>
          <_>
            <feature>
              <rects>
                <_>
                  14 0 10 7 -1.</_>
                <_>
                  14 0 5 7 2.</_></rects>
              <tilted>0</tilted></feature>
            <threshold>-9.5216771587729454e-003</threshold>
            <left_val>1.</left_val>
            <right_val>-0.9088457226753235</right_val></_></_>
        <_>
          <_>
            <feature>
              <rects>
                <_>
                  0 0 1 4 -1.</_>
                <_>
                  0 1 1 2 2.</_></rects>
              <tilted>0</tilted></feature>
            <threshold>-2.0400160792632960e-005</threshold>
            <left_val>1.</left_val>
            <right_val>-1.</right_val></_></_>
        <_>
          <_>
            <feature>
              <rects>
                <_>
                  23 8 1 2 -1.</_>
                <_>
                  23 8 1 1 2.</_></rects>
              <tilted>1</tilted></feature>
            <threshold>-2.0400160792632960e-005</threshold>
            <left_val>1.</left_val>
            <right_val>-0.8218175768852234</right_val></_></_>
        <_>
          <_>
            <feature>
              <rects>
                <_>
                  1 0 16 1 -1.</_>
                <_>
                  1 0 8 1 2.</_></rects>
              <tilted>1</tilted></feature>
            <threshold>-1.3295899843797088e-003</threshold>
            <left_val>1.</left_val>
            <right_val>-1.</right_val></_></_>
        <_>
          <_>
            <feature>
              <rects>
                <_>
                  11 0 2 18 -1.</_>
                <_>
                  12 0 1 9 2.</_>
                <_>
                  11 9 1 9 2.</_></rects>
              <tilted>0</tilted></feature>
            <threshold>-3.8765079807490110e-004</threshold>
            <left_val>1.</left_val>
            <right_val>-0.9999998807907105</right_val></_></_>
        <_>
          <_>
            <feature>
              <rects>
                <_>
                  8 8 2 2 -1.</_>
                <_>
                  8 8 1 2 2.</_></rects>
              <tilted>1</tilted></feature>
            <threshold>-6.8313311203382909e-005</threshold>
            <left_val>0.9136723875999451</left_val>
            <right_val>-0.9541100859642029</right_val></_></_>
        <_>
          <_>
            <feature>
              <rects>
                <_>
                  22 17 2 4 -1.</_>
                <_>
                  22 17 1 4 2.</_></rects>
              <tilted>0</tilted></feature>
            <threshold>1.5475960026378743e-005</threshold>
            <left_val>-0.5593401789665222</left_val>
            <right_val>0.7665154933929443</right_val></_></_>
        <_>
          <_>
            <feature>
              <rects>
                <_>
                  1 3 3 17 -1.</_>
                <_>
                  2 3 1 17 3.</_></rects>
              <tilted>0</tilted></feature>
            <threshold>-8.1226840848103166e-004</threshold>
            <left_val>1.</left_val>
            <right_val>-0.7364298105239868</right_val></_></_></trees>
      <stage_threshold>-5.7752041816711426</stage_threshold>
      <parent>5</parent>
      <next>-1</next></_>
    <_>
      <trees>
        <_>
          <_>
            <feature>
              <rects>
                <_>
                  0 2 24 20 -1.</_>
                <_>
                  6 2 12 20 2.</_></rects>
              <tilted>0</tilted></feature>
            <threshold>0.4100190103054047</threshold>
            <left_val>-0.3694717884063721</left_val>
            <right_val>0.5148376226425171</right_val></_></_>
        <_>
          <_>
            <feature>
              <rects>
                <_>
                  13 3 7 18 -1.</_>
                <_>
                  13 12 7 9 2.</_></rects>
              <tilted>0</tilted></feature>
            <threshold>0.1415667980909348</threshold>
            <left_val>-0.2188228070735931</left_val>
            <right_val>0.4624925851821899</right_val></_></_>
        <_>
          <_>
            <feature>
              <rects>
                <_>
                  0 0 10 4 -1.</_>
                <_>
                  0 2 10 2 2.</_></rects>
              <tilted>0</tilted></feature>
            <threshold>3.1548150582239032e-004</threshold>
            <left_val>-0.6460201144218445</left_val>
            <right_val>0.2624930143356323</right_val></_></_>
        <_>
          <_>
            <feature>
              <rects>
                <_>
                  18 4 6 2 -1.</_>
                <_>
                  18 4 3 2 2.</_></rects>
              <tilted>0</tilted></feature>
            <threshold>-9.1819837689399719e-003</threshold>
            <left_val>-1.</left_val>
            <right_val>6.9728202652186155e-004</right_val></_></_>
        <_>
          <_>
            <feature>
              <rects>
                <_>
                  0 3 6 4 -1.</_>
                <_>
                  3 3 3 4 2.</_></rects>
              <tilted>0</tilted></feature>
            <threshold>2.7791981119662523e-004</threshold>
            <left_val>-0.5977554917335510</left_val>
            <right_val>0.3456745147705078</right_val></_></_>
        <_>
          <_>
            <feature>
              <rects>
                <_>
                  2 14 22 8 -1.</_>
                <_>
                  2 18 22 4 2.</_></rects>
              <tilted>0</tilted></feature>
            <threshold>0.0237586107105017</threshold>
            <left_val>-0.3873930871486664</left_val>
            <right_val>0.4936639964580536</right_val></_></_>
        <_>
          <_>
            <feature>
              <rects>
                <_>
                  1 4 14 20 -1.</_>
                <_>
                  1 9 14 10 2.</_></rects>
              <tilted>0</tilted></feature>
            <threshold>0.0899947732686996</threshold>
            <left_val>-0.6431707739830017</left_val>
            <right_val>0.3427770137786865</right_val></_></_>
        <_>
          <_>
            <feature>
              <rects>
                <_>
                  13 2 7 20 -1.</_>
                <_>
                  13 12 7 10 2.</_></rects>
              <tilted>0</tilted></feature>
            <threshold>0.0886295363306999</threshold>
            <left_val>-0.4516341090202332</left_val>
            <right_val>0.1186854988336563</right_val></_></_>
        <_>
          <_>
            <feature>
              <rects>
                <_>
                  0 4 18 8 -1.</_>
                <_>
                  9 4 9 8 2.</_></rects>
              <tilted>0</tilted></feature>
            <threshold>3.4675339702516794e-003</threshold>
            <left_val>-0.7712820768356323</left_val>
            <right_val>0.3996146023273468</right_val></_></_>
        <_>
          <_>
            <feature>
              <rects>
                <_>
                  3 0 18 23 -1.</_>
                <_>
                  3 0 9 23 2.</_></rects>
              <tilted>0</tilted></feature>
            <threshold>5.0615058280527592e-003</threshold>
            <left_val>-0.6989629864692688</left_val>
            <right_val>0.4581786990165710</right_val></_></_>
        <_>
          <_>
            <feature>
              <rects>
                <_>
                  9 2 4 18 -1.</_>
                <_>
                  11 2 2 18 2.</_></rects>
              <tilted>0</tilted></feature>
            <threshold>2.2977509070187807e-003</threshold>
            <left_val>-0.7695791125297546</left_val>
            <right_val>0.6387630105018616</right_val></_></_>
        <_>
          <_>
            <feature>
              <rects>
                <_>
                  13 13 2 9 -1.</_>
                <_>
                  13 16 2 3 3.</_></rects>
              <tilted>0</tilted></feature>
            <threshold>6.1370352341327816e-005</threshold>
            <left_val>-0.8256145119667053</left_val>
            <right_val>0.2800267934799194</right_val></_></_>
        <_>
          <_>
            <feature>
              <rects>
                <_>
                  4 0 3 16 -1.</_>
                <_>
                  4 8 3 8 2.</_></rects>
              <tilted>0</tilted></feature>
            <threshold>9.8278047516942024e-004</threshold>
            <left_val>-0.9714441895484924</left_val>
            <right_val>0.5485430955886841</right_val></_></_>
        <_>
          <_>
            <feature>
              <rects>
                <_>
                  6 17 14 4 -1.</_>
                <_>
                  13 17 7 2 2.</_>
                <_>
                  6 19 7 2 2.</_></rects>
              <tilted>0</tilted></feature>
            <threshold>-7.8782817581668496e-005</threshold>
            <left_val>0.1912208050489426</left_val>
            <right_val>-0.9416183233261108</right_val></_></_>
        <_>
          <_>
            <feature>
              <rects>
                <_>
                  0 20 20 3 -1.</_>
                <_>
                  5 20 10 3 2.</_></rects>
              <tilted>0</tilted></feature>
            <threshold>0.0219340603798628</threshold>
            <left_val>-0.8429558873176575</left_val>
            <right_val>0.6802455186843872</right_val></_></_>
        <_>
          <_>
            <feature>
              <rects>
                <_>
                  8 6 9 4 -1.</_>
                <_>
                  8 7 9 2 2.</_></rects>
              <tilted>0</tilted></feature>
            <threshold>-4.1523129766574129e-005</threshold>
            <left_val>0.6144561767578125</left_val>
            <right_val>-0.8979116082191467</right_val></_></_>
        <_>
          <_>
            <feature>
              <rects>
                <_>
                  10 1 4 6 -1.</_>
                <_>
                  10 4 4 3 2.</_></rects>
              <tilted>0</tilted></feature>
            <threshold>4.1523129766574129e-005</threshold>
            <left_val>-0.9260135293006897</left_val>
            <right_val>0.5815526247024536</right_val></_></_></trees>
      <stage_threshold>-1.6326309442520142</stage_threshold>
      <parent>6</parent>
      <next>-1</next></_>
    <_>
      <trees>
        <_>
          <_>
            <feature>
              <rects>
                <_>
                  4 1 2 1 -1.</_>
                <_>
                  4 1 1 1 2.</_></rects>
              <tilted>1</tilted></feature>
            <threshold>5.4718030150979757e-004</threshold>
            <left_val>0.2351154983043671</left_val>
            <right_val>-0.8799265027046204</right_val></_></_>
        <_>
          <_>
            <feature>
              <rects>
                <_>
                  21 5 2 1 -1.</_>
                <_>
                  21 5 1 1 2.</_></rects>
              <tilted>1</tilted></feature>
            <threshold>-1.1889969464391470e-003</threshold>
            <left_val>-0.7502849102020264</left_val>
            <right_val>0.1119009032845497</right_val></_></_>
        <_>
          <_>
            <feature>
              <rects>
                <_>
                  3 5 1 2 -1.</_>
                <_>
                  3 5 1 1 2.</_></rects>
              <tilted>1</tilted></feature>
            <threshold>-1.2869370402768254e-003</threshold>
            <left_val>-1.</left_val>
            <right_val>0.1973890960216522</right_val></_></_>
        <_>
          <_>
            <feature>
              <rects>
                <_>
                  2 4 21 4 -1.</_>
                <_>
                  2 6 21 2 2.</_></rects>
              <tilted>0</tilted></feature>
            <threshold>6.4526260830461979e-003</threshold>
            <left_val>-0.6101471185684204</left_val>
            <right_val>0.1862630993127823</right_val></_></_></trees>
      <stage_threshold>-0.3843733966350555</stage_threshold>
      <parent>7</parent>
      <next>-1</next></_>
    <_>
      <trees>
        <_>
          <_>
            <feature>
              <rects>
                <_>
                  2 0 2 3 -1.</_>
                <_>
                  2 1 2 1 3.</_></rects>
              <tilted>0</tilted></feature>
            <threshold>-7.2079582605510950e-004</threshold>
            <left_val>-0.8824462890625000</left_val>
            <right_val>0.2422050982713699</right_val></_></_>
        <_>
          <_>
            <feature>
              <rects>
                <_>
                  0 8 24 15 -1.</_>
                <_>
                  8 8 8 15 3.</_></rects>
              <tilted>0</tilted></feature>
            <threshold>0.5592421293258667</threshold>
            <left_val>-0.2621217072010040</left_val>
            <right_val>0.6954870820045471</right_val></_></_>
        <_>
          <_>
            <feature>
              <rects>
                <_>
                  1 6 21 2 -1.</_>
                <_>
                  1 7 21 1 2.</_></rects>
              <tilted>0</tilted></feature>
            <threshold>8.4185687592253089e-004</threshold>
            <left_val>-0.6603021025657654</left_val>
            <right_val>0.2646465897560120</right_val></_></_>
        <_>
          <_>
            <feature>
              <rects>
                <_>
                  9 3 6 18 -1.</_>
                <_>
                  9 3 3 18 2.</_></rects>
              <tilted>0</tilted></feature>
            <threshold>0.0326177403330803</threshold>
            <left_val>-0.3097856938838959</left_val>
            <right_val>0.6210175752639771</right_val></_></_>
        <_>
          <_>
            <feature>
              <rects>
                <_>
                  3 15 17 4 -1.</_>
                <_>
                  3 17 17 2 2.</_></rects>
              <tilted>0</tilted></feature>
            <threshold>3.1883420888334513e-003</threshold>
            <left_val>-0.4571917057037354</left_val>
            <right_val>0.4914354085922241</right_val></_></_>
        <_>
          <_>
            <feature>
              <rects>
                <_>
                  8 5 14 2 -1.</_>
                <_>
                  8 5 7 2 2.</_></rects>
              <tilted>0</tilted></feature>
            <threshold>1.5946440398693085e-003</threshold>
            <left_val>-0.3543050885200501</left_val>
            <right_val>0.1830859035253525</right_val></_></_>
        <_>
          <_>
            <feature>
              <rects>
                <_>
                  0 10 18 1 -1.</_>
                <_>
                  9 10 9 1 2.</_></rects>
              <tilted>0</tilted></feature>
            <threshold>2.4153520644176751e-004</threshold>
            <left_val>-0.8322566747665405</left_val>
            <right_val>0.3659026026725769</right_val></_></_>
        <_>
          <_>
            <feature>
              <rects>
                <_>
                  18 2 1 2 -1.</_>
                <_>
                  18 2 1 1 2.</_></rects>
              <tilted>1</tilted></feature>
            <threshold>-3.8357789890142158e-005</threshold>
            <left_val>0.2046356946229935</left_val>
            <right_val>-0.6331728100776672</right_val></_></_>
        <_>
          <_>
            <feature>
              <rects>
                <_>
                  6 7 9 10 -1.</_>
                <_>
                  9 7 3 10 3.</_></rects>
              <tilted>0</tilted></feature>
            <threshold>-2.8015279676765203e-003</threshold>
            <left_val>0.7335835099220276</left_val>
            <right_val>-0.4996435046195984</right_val></_></_>
        <_>
          <_>
            <feature>
              <rects>
                <_>
                  14 11 1 4 -1.</_>
                <_>
                  14 12 1 2 2.</_></rects>
              <tilted>0</tilted></feature>
            <threshold>6.9333828287199140e-004</threshold>
            <left_val>-0.1076344996690750</left_val>
            <right_val>0.3674088120460510</right_val></_></_>
        <_>
          <_>
            <feature>
              <rects>
                <_>
                  12 8 4 6 -1.</_>
                <_>
                  10 10 4 2 3.</_></rects>
              <tilted>1</tilted></feature>
            <threshold>6.4229837153106928e-004</threshold>
            <left_val>-0.6280472874641419</left_val>
            <right_val>0.4464024007320404</right_val></_></_></trees>
      <stage_threshold>-0.9964197874069214</stage_threshold>
      <parent>8</parent>
      <next>-1</next></_>
    <_>
      <trees>
        <_>
          <_>
            <feature>
              <rects>
                <_>
                  0 20 4 1 -1.</_>
                <_>
                  2 20 2 1 2.</_></rects>
              <tilted>0</tilted></feature>
            <threshold>9.3620578991249204e-004</threshold>
            <left_val>-0.3853251039981842</left_val>
            <right_val>0.3765474855899811</right_val></_></_>
        <_>
          <_>
            <feature>
              <rects>
                <_>
                  22 17 2 3 -1.</_>
                <_>
                  22 18 2 1 3.</_></rects>
              <tilted>0</tilted></feature>
            <threshold>-4.1331601096317172e-004</threshold>
            <left_val>-0.4315665066242218</left_val>
            <right_val>0.1207749992609024</right_val></_></_>
        <_>
          <_>
            <feature>
              <rects>
                <_>
                  0 1 14 1 -1.</_>
                <_>
                  7 1 7 1 2.</_></rects>
              <tilted>0</tilted></feature>
            <threshold>6.1127631925046444e-003</threshold>
            <left_val>0.2933850884437561</left_val>
            <right_val>-0.4694974124431610</right_val></_></_>
        <_>
          <_>
            <feature>
              <rects>
                <_>
                  18 13 2 11 -1.</_>
                <_>
                  18 13 1 11 2.</_></rects>
              <tilted>0</tilted></feature>
            <threshold>1.9377670250833035e-003</threshold>
            <left_val>-0.2188301980495453</left_val>
            <right_val>0.2493844032287598</right_val></_></_>
        <_>
          <_>
            <feature>
              <rects>
                <_>
                  4 13 2 11 -1.</_>
                <_>
                  5 13 1 11 2.</_></rects>
              <tilted>0</tilted></feature>
            <threshold>4.5435968786478043e-003</threshold>
            <left_val>-0.3501398861408234</left_val>
            <right_val>0.4743126034736633</right_val></_></_>
        <_>
          <_>
            <feature>
              <rects>
                <_>
                  17 1 3 3 -1.</_>
                <_>
                  18 2 1 1 9.</_></rects>
              <tilted>0</tilted></feature>
            <threshold>5.0993921468034387e-004</threshold>
            <left_val>0.1238081976771355</left_val>
            <right_val>-0.2331247925758362</right_val></_></_>
        <_>
          <_>
            <feature>
              <rects>
                <_>
                  3 2 12 8 -1.</_>
                <_>
                  3 2 6 4 2.</_>
                <_>
                  9 6 6 4 2.</_></rects>
              <tilted>0</tilted></feature>
            <threshold>-0.0121780904009938</threshold>
            <left_val>0.6502540111541748</left_val>
            <right_val>-0.2292274981737137</right_val></_></_>
        <_>
          <_>
            <feature>
              <rects>
                <_>
                  6 1 18 8 -1.</_>
                <_>
                  15 1 9 4 2.</_>
                <_>
                  6 5 9 4 2.</_></rects>
              <tilted>0</tilted></feature>
            <threshold>-7.4400529265403748e-003</threshold>
            <left_val>-0.3344815075397492</left_val>
            <right_val>0.0910433083772659</right_val></_></_></trees>
      <stage_threshold>-0.5545110106468201</stage_threshold>
      <parent>9</parent>
      <next>-1</next></_>
    <_>
      <trees>
        <_>
          <_>
            <feature>
              <rects>
                <_>
                  7 12 3 12 -1.</_>
                <_>
                  7 15 3 6 2.</_></rects>
              <tilted>0</tilted></feature>
            <threshold>0.0111966002732515</threshold>
            <left_val>-0.2886681854724884</left_val>
            <right_val>0.4106892943382263</right_val></_></_>
        <_>
          <_>
            <feature>
              <rects>
                <_>
                  11 23 8 1 -1.</_>
                <_>
                  13 23 4 1 2.</_></rects>
              <tilted>0</tilted></feature>
            <threshold>2.4587858933955431e-004</threshold>
            <left_val>-0.1818006932735443</left_val>
            <right_val>0.1170599982142448</right_val></_></_>
        <_>
          <_>
            <feature>
              <rects>
                <_>
                  5 23 8 1 -1.</_>
                <_>
                  7 23 4 1 2.</_></rects>
              <tilted>0</tilted></feature>
            <threshold>3.4246990253450349e-005</threshold>
            <left_val>-0.5431730747222900</left_val>
            <right_val>0.2924827933311462</right_val></_></_>
        <_>
          <_>
            <feature>
              <rects>
                <_>
                  12 9 9 3 -1.</_>
                <_>
                  11 10 9 1 3.</_></rects>
              <tilted>1</tilted></feature>
            <threshold>7.4064871296286583e-003</threshold>
            <left_val>-0.1939342021942139</left_val>
            <right_val>0.4460766911506653</right_val></_></_>
        <_>
          <_>
            <feature>
              <rects>
                <_>
                  1 0 21 8 -1.</_>
                <_>
                  1 4 21 4 2.</_></rects>
              <tilted>0</tilted></feature>
            <threshold>0.0296103209257126</threshold>
            <left_val>-0.6759322285652161</left_val>
            <right_val>0.3250016868114471</right_val></_></_>
        <_>
          <_>
            <feature>
              <rects>
                <_>
                  18 5 5 12 -1.</_>
                <_>
                  14 9 5 4 3.</_></rects>
              <tilted>1</tilted></feature>
            <threshold>0.0187064595520496</threshold>
            <left_val>-0.5667600035667419</left_val>
            <right_val>0.0975210592150688</right_val></_></_>
        <_>
          <_>
            <feature>
              <rects>
                <_>
                  4 0 4 4 -1.</_>
                <_>
                  5 0 2 4 2.</_></rects>
              <tilted>0</tilted></feature>
            <threshold>-3.0254930607043207e-005</threshold>
            <left_val>0.4457364976406097</left_val>
            <right_val>-0.6462486982345581</right_val></_></_>
        <_>
          <_>
            <feature>
              <rects>
                <_>
                  10 3 8 20 -1.</_>
                <_>
                  10 3 4 20 2.</_></rects>
              <tilted>0</tilted></feature>
            <threshold>-0.0837040171027184</threshold>
            <left_val>0.6068465709686279</left_val>
            <right_val>-0.1502144038677216</right_val></_></_>
        <_>
          <_>
            <feature>
              <rects>
                <_>
                  6 5 12 5 -1.</_>
                <_>
                  9 8 6 5 2.</_></rects>
              <tilted>1</tilted></feature>
            <threshold>0.0391103588044643</threshold>
            <left_val>-0.5016726255416870</left_val>
            <right_val>0.5582556724548340</right_val></_></_>
        <_>
          <_>
            <feature>
              <rects>
                <_>
                  17 20 3 3 -1.</_>
                <_>
                  17 21 3 1 3.</_></rects>
              <tilted>0</tilted></feature>
            <threshold>4.8503320431336761e-004</threshold>
            <left_val>-0.3508700132369995</left_val>
            <right_val>0.3302390873432159</right_val></_></_>
        <_>
          <_>
            <feature>
              <rects>
                <_>
                  2 2 20 14 -1.</_>
                <_>
                  2 9 20 7 2.</_></rects>
              <tilted>0</tilted></feature>
            <threshold>0.1160101965069771</threshold>
            <left_val>-0.8527687191963196</left_val>
            <right_val>0.3503744006156921</right_val></_></_>
        <_>
          <_>
            <feature>
              <rects>
                <_>
                  8 10 8 6 -1.</_>
                <_>
                  12 10 4 3 2.</_>
                <_>
                  8 13 4 3 2.</_></rects>
              <tilted>0</tilted></feature>
            <threshold>-1.1429409496486187e-003</threshold>
            <left_val>0.4529959857463837</left_val>
            <right_val>-0.7107272148132324</right_val></_></_>
        <_>
          <_>
            <feature>
              <rects>
                <_>
                  9 6 4 1 -1.</_>
                <_>
                  10 7 2 1 2.</_></rects>
              <tilted>1</tilted></feature>
            <threshold>-1.5748990335850976e-005</threshold>
            <left_val>0.5755839943885803</left_val>
            <right_val>-0.5745478868484497</right_val></_></_>
        <_>
          <_>
            <feature>
              <rects>
                <_>
                  12 9 8 10 -1.</_>
                <_>
                  16 9 4 5 2.</_>
                <_>
                  12 14 4 5 2.</_></rects>
              <tilted>0</tilted></feature>
            <threshold>-6.5829399973154068e-003</threshold>
            <left_val>0.4628759920597076</left_val>
            <right_val>-0.2441315948963165</right_val></_></_>
        <_>
          <_>
            <feature>
              <rects>
                <_>
                  4 9 8 10 -1.</_>
                <_>
                  4 9 4 5 2.</_>
                <_>
                  8 14 4 5 2.</_></rects>
              <tilted>0</tilted></feature>
            <threshold>5.4498240351676941e-003</threshold>
            <left_val>-0.5007296204566956</left_val>
            <right_val>0.6993709802627564</right_val></_></_></trees>
      <stage_threshold>-0.9207357764244080</stage_threshold>
      <parent>10</parent>
      <next>-1</next></_>
    <_>
      <trees>
        <_>
          <_>
            <feature>
              <rects>
                <_>
                  0 13 18 11 -1.</_>
                <_>
                  6 13 6 11 3.</_></rects>
              <tilted>0</tilted></feature>
            <threshold>0.1033992022275925</threshold>
            <left_val>-0.3992618918418884</left_val>
            <right_val>0.3450230956077576</right_val></_></_>
        <_>
          <_>
            <feature>
              <rects>
                <_>
                  5 7 15 10 -1.</_>
                <_>
                  10 7 5 10 3.</_></rects>
              <tilted>0</tilted></feature>
            <threshold>-0.0462294593453407</threshold>
            <left_val>0.6687688231468201</left_val>
            <right_val>-0.1399496942758560</right_val></_></_>
        <_>
          <_>
            <feature>
              <rects>
                <_>
                  5 18 1 6 -1.</_>
                <_>
                  5 20 1 2 3.</_></rects>
              <tilted>0</tilted></feature>
            <threshold>7.2296810685656965e-005</threshold>
            <left_val>-0.4188314080238342</left_val>
            <right_val>0.3366676867008209</right_val></_></_>
        <_>
          <_>
            <feature>
              <rects>
                <_>
                  12 12 3 12 -1.</_>
                <_>
                  12 16 3 4 3.</_></rects>
              <tilted>0</tilted></feature>
            <threshold>8.0860347952693701e-004</threshold>
            <left_val>-0.4479832053184509</left_val>
            <right_val>0.1618704050779343</right_val></_></_>
        <_>
          <_>
            <feature>
              <rects>
                <_>
                  7 0 3 2 -1.</_>
                <_>
                  7 1 3 1 2.</_></rects>
              <tilted>0</tilted></feature>
            <threshold>6.6163316660095006e-005</threshold>
            <left_val>-0.5681586861610413</left_val>
            <right_val>0.2824662029743195</right_val></_></_>
        <_>
          <_>
            <feature>
              <rects>
                <_>
                  9 1 12 12 -1.</_>
                <_>
                  9 1 6 12 2.</_></rects>
              <tilted>0</tilted></feature>
            <threshold>0.1061917990446091</threshold>
            <left_val>-0.2475775033235550</left_val>
            <right_val>0.3502730131149292</right_val></_></_>
        <_>
          <_>
            <feature>
              <rects>
                <_>
                  7 1 9 2 -1.</_>
                <_>
                  10 4 3 2 3.</_></rects>
              <tilted>1</tilted></feature>
            <threshold>-3.3647010568529367e-003</threshold>
            <left_val>0.6297643780708313</left_val>
            <right_val>-0.4715454876422882</right_val></_></_>
        <_>
          <_>
            <feature>
              <rects>
                <_>
                  8 2 14 6 -1.</_>
                <_>
                  8 2 7 6 2.</_></rects>
              <tilted>0</tilted></feature>
            <threshold>0.0194183103740215</threshold>
            <left_val>-0.1845019012689591</left_val>
            <right_val>0.2091210037469864</right_val></_></_>
        <_>
          <_>
            <feature>
              <rects>
                <_>
                  2 2 14 6 -1.</_>
                <_>
                  9 2 7 6 2.</_></rects>
              <tilted>0</tilted></feature>
            <threshold>1.6373930266126990e-003</threshold>
            <left_val>-0.6839653849601746</left_val>
            <right_val>0.3754746019840241</right_val></_></_>
        <_>
          <_>
            <feature>
              <rects>
                <_>
                  14 6 6 18 -1.</_>
                <_>
                  16 12 2 6 9.</_></rects>
              <tilted>0</tilted></feature>
            <threshold>2.0800459606107324e-004</threshold>
            <left_val>-0.5184845924377441</left_val>
            <right_val>0.0645017325878143</right_val></_></_>
        <_>
          <_>
            <feature>
              <rects>
                <_>
                  8 16 2 6 -1.</_>
                <_>
                  8 16 2 3 2.</_></rects>
              <tilted>1</tilted></feature>
            <threshold>6.0091208433732390e-004</threshold>
            <left_val>-0.8972591161727905</left_val>
            <right_val>0.2598161995410919</right_val></_></_>
        <_>
          <_>
            <feature>
              <rects>
                <_>
                  15 8 3 3 -1.</_>
                <_>
                  16 9 1 1 9.</_></rects>
              <tilted>0</tilted></feature>
            <threshold>2.0419800421223044e-004</threshold>
            <left_val>-0.5061315894126892</left_val>
            <right_val>0.0839744880795479</right_val></_></_>
        <_>
          <_>
            <feature>
              <rects>
                <_>
                  2 4 10 4 -1.</_>
                <_>
                  2 6 10 2 2.</_></rects>
              <tilted>0</tilted></feature>
            <threshold>3.9914509397931397e-004</threshold>
            <left_val>-0.8780474066734314</left_val>
            <right_val>0.3512792885303497</right_val></_></_>
        <_>
          <_>
            <feature>
              <rects>
                <_>
                  15 9 3 4 -1.</_>
                <_>
                  16 9 1 4 3.</_></rects>
              <tilted>0</tilted></feature>
            <threshold>-4.1216230602003634e-004</threshold>
            <left_val>0.2160415053367615</left_val>
            <right_val>-0.5372208952903748</right_val></_></_>
        <_>
          <_>
            <feature>
              <rects>
                <_>
                  4 4 2 11 -1.</_>
                <_>
                  5 4 1 11 2.</_></rects>
              <tilted>0</tilted></feature>
            <threshold>4.7569999878760427e-005</threshold>
            <left_val>-0.8400009870529175</left_val>
            <right_val>0.4813300073146820</right_val></_></_>
        <_>
          <_>
            <feature>
              <rects>
                <_>
                  15 15 1 4 -1.</_>
                <_>
                  15 16 1 2 2.</_></rects>
              <tilted>0</tilted></feature>
            <threshold>1.4557120266545098e-005</threshold>
            <left_val>-0.5872840285301209</left_val>
            <right_val>0.1032949015498161</right_val></_></_>
        <_>
          <_>
            <feature>
              <rects>
                <_>
                  10 1 4 6 -1.</_>
                <_>
                  10 4 4 3 2.</_></rects>
              <tilted>0</tilted></feature>
            <threshold>4.1523129766574129e-005</threshold>
            <left_val>-0.9282367229461670</left_val>
            <right_val>0.3485929071903229</right_val></_></_>
        <_>
          <_>
            <feature>
              <rects>
                <_>
                  11 6 4 6 -1.</_>
                <_>
                  13 6 2 3 2.</_>
                <_>
                  11 9 2 3 2.</_></rects>
              <tilted>0</tilted></feature>
            <threshold>2.0774839867954142e-005</threshold>
            <left_val>-0.7411962151527405</left_val>
            <right_val>0.1077911034226418</right_val></_></_>
        <_>
          <_>
            <feature>
              <rects>
                <_>
                  8 6 8 6 -1.</_>
                <_>
                  8 6 4 3 2.</_>
                <_>
                  12 9 4 3 2.</_></rects>
              <tilted>0</tilted></feature>
            <threshold>1.6023130156099796e-003</threshold>
            <left_val>-0.7577418088912964</left_val>
            <right_val>0.8883550167083740</right_val></_></_>
        <_>
          <_>
            <feature>
              <rects>
                <_>
                  11 3 12 21 -1.</_>
                <_>
                  15 10 4 7 9.</_></rects>
              <tilted>0</tilted></feature>
            <threshold>5.2347821183502674e-003</threshold>
            <left_val>-0.8482903838157654</left_val>
            <right_val>0.4615606069564819</right_val></_></_>
        <_>
          <_>
            <feature>
              <rects>
                <_>
                  1 3 12 21 -1.</_>
                <_>
                  5 10 4 7 9.</_></rects>
              <tilted>0</tilted></feature>
            <threshold>3.0481410212814808e-003</threshold>
            <left_val>-0.9937695264816284</left_val>
            <right_val>0.6368455290794373</right_val></_></_>
        <_>
          <_>
            <feature>
              <rects>
                <_>
                  0 8 24 12 -1.</_>
                <_>
                  0 12 24 4 3.</_></rects>
              <tilted>0</tilted></feature>
            <threshold>-3.9276690222322941e-003</threshold>
            <left_val>0.8779848814010620</left_val>
            <right_val>-0.9831840991973877</right_val></_></_>
        <_>
          <_>
            <feature>
              <rects>
                <_>
                  5 6 8 15 -1.</_>
                <_>
                  5 11 8 5 3.</_></rects>
              <tilted>0</tilted></feature>
            <threshold>4.1511789895594120e-003</threshold>
            <left_val>-0.9963471293449402</left_val>
            <right_val>0.8320099115371704</right_val></_></_>
        <_>
          <_>
            <feature>
              <rects>
                <_>
                  19 0 5 4 -1.</_>
                <_>
                  19 1 5 2 2.</_></rects>
              <tilted>0</tilted></feature>
            <threshold>-2.7319500077283010e-005</threshold>
            <left_val>-0.1016952022910118</left_val>
            <right_val>-0.9999998807907105</right_val></_></_>
        <_>
          <_>
            <feature>
              <rects>
                <_>
                  0 0 12 4 -1.</_>
                <_>
                  0 2 12 2 2.</_></rects>
              <tilted>0</tilted></feature>
            <threshold>2.5370670482516289e-004</threshold>
            <left_val>-0.9862548112869263</left_val>
            <right_val>0.7792168855667114</right_val></_></_>
        <_>
          <_>
            <feature>
              <rects>
                <_>
                  22 10 2 12 -1.</_>
                <_>
                  22 10 1 12 2.</_></rects>
              <tilted>1</tilted></feature>
            <threshold>3.1756178941577673e-003</threshold>
            <left_val>-0.9865614175796509</left_val>
            <right_val>0.5167372822761536</right_val></_></_>
        <_>
          <_>
            <feature>
              <rects>
                <_>
                  0 0 3 3 -1.</_>
                <_>
                  0 1 3 1 3.</_></rects>
              <tilted>0</tilted></feature>
            <threshold>3.2091699540615082e-004</threshold>
            <left_val>-1.</left_val>
            <right_val>1.0000129938125610</right_val></_></_>
        <_>
          <_>
            <feature>
              <rects>
                <_>
                  22 0 2 1 -1.</_>
                <_>
                  22 0 1 1 2.</_></rects>
              <tilted>0</tilted></feature>
            <threshold>0.</threshold>
            <left_val>0.</left_val>
            <right_val>-1.</right_val></_></_>
        <_>
          <_>
            <feature>
              <rects>
                <_>
                  0 0 6 8 -1.</_>
                <_>
                  0 2 6 4 2.</_></rects>
              <tilted>0</tilted></feature>
            <threshold>4.3749119504354894e-004</threshold>
            <left_val>-1.</left_val>
            <right_val>1.0000129938125610</right_val></_></_>
        <_>
          <_>
            <feature>
              <rects>
                <_>
                  22 0 2 1 -1.</_>
                <_>
                  22 0 1 1 2.</_></rects>
              <tilted>0</tilted></feature>
            <threshold>0.</threshold>
            <left_val>0.</left_val>
            <right_val>-1.</right_val></_></_>
        <_>
          <_>
            <feature>
              <rects>
                <_>
                  0 0 10 4 -1.</_>
                <_>
                  0 2 10 2 2.</_></rects>
              <tilted>0</tilted></feature>
            <threshold>7.6494610402733088e-004</threshold>
            <left_val>-1.</left_val>
            <right_val>1.0000020265579224</right_val></_></_>
        <_>
          <_>
            <feature>
              <rects>
                <_>
                  22 0 2 1 -1.</_>
                <_>
                  22 0 1 1 2.</_></rects>
              <tilted>0</tilted></feature>
            <threshold>0.</threshold>
            <left_val>0.</left_val>
            <right_val>-1.</right_val></_></_>
        <_>
          <_>
            <feature>
              <rects>
                <_>
                  6 0 2 20 -1.</_>
                <_>
                  6 10 2 10 2.</_></rects>
              <tilted>0</tilted></feature>
            <threshold>0.0131653500720859</threshold>
            <left_val>-1.</left_val>
            <right_val>1.0000050067901611</right_val></_></_>
        <_>
          <_>
            <feature>
              <rects>
                <_>
                  22 0 2 1 -1.</_>
                <_>
                  22 0 1 1 2.</_></rects>
              <tilted>0</tilted></feature>
            <threshold>0.</threshold>
            <left_val>0.</left_val>
            <right_val>-1.</right_val></_></_>
        <_>
          <_>
            <feature>
              <rects>
                <_>
                  0 0 1 2 -1.</_>
                <_>
                  0 1 1 1 2.</_></rects>
              <tilted>0</tilted></feature>
            <threshold>2.5597579224267974e-005</threshold>
            <left_val>-1.</left_val>
            <right_val>1.0000109672546387</right_val></_></_>
        <_>
          <_>
            <feature>
              <rects>
                <_>
                  22 0 2 1 -1.</_>
                <_>
                  22 0 1 1 2.</_></rects>
              <tilted>0</tilted></feature>
            <threshold>0.</threshold>
            <left_val>0.</left_val>
            <right_val>-1.</right_val></_></_>
        <_>
          <_>
            <feature>
              <rects>
                <_>
                  0 0 1 3 -1.</_>
                <_>
                  0 1 1 1 3.</_></rects>
              <tilted>0</tilted></feature>
            <threshold>2.5734780138009228e-005</threshold>
            <left_val>-1.</left_val>
            <right_val>1.0000109672546387</right_val></_></_>
        <_>
          <_>
            <feature>
              <rects>
                <_>
                  22 0 2 1 -1.</_>
                <_>
                  22 0 1 1 2.</_></rects>
              <tilted>0</tilted></feature>
            <threshold>0.</threshold>
            <left_val>0.</left_val>
            <right_val>-1.</right_val></_></_>
        <_>
          <_>
            <feature>
              <rects>
                <_>
                  0 0 3 24 -1.</_>
                <_>
                  1 8 1 8 9.</_></rects>
              <tilted>0</tilted></feature>
            <threshold>1.2955840211361647e-003</threshold>
            <left_val>-1.</left_val>
            <right_val>1.0000040531158447</right_val></_></_>
        <_>
          <_>
            <feature>
              <rects>
                <_>
                  22 0 2 1 -1.</_>
                <_>
                  22 0 1 1 2.</_></rects>
              <tilted>0</tilted></feature>
            <threshold>0.</threshold>
            <left_val>0.</left_val>
            <right_val>-1.</right_val></_></_>
        <_>
          <_>
            <feature>
              <rects>
                <_>
                  0 0 1 3 -1.</_>
                <_>
                  0 1 1 1 3.</_></rects>
              <tilted>0</tilted></feature>
            <threshold>2.5734780138009228e-005</threshold>
            <left_val>-1.</left_val>
            <right_val>1.</right_val></_></_>
        <_>
          <_>
            <feature>
              <rects>
                <_>
                  22 0 2 1 -1.</_>
                <_>
                  22 0 1 1 2.</_></rects>
              <tilted>0</tilted></feature>
            <threshold>0.</threshold>
            <left_val>0.</left_val>
            <right_val>-1.</right_val></_></_>
        <_>
          <_>
            <feature>
              <rects>
                <_>
                  0 0 2 8 -1.</_>
                <_>
                  0 0 1 4 2.</_>
                <_>
                  1 4 1 4 2.</_></rects>
              <tilted>0</tilted></feature>
            <threshold>4.7967419959604740e-005</threshold>
            <left_val>-1.</left_val>
            <right_val>1.</right_val></_></_>
        <_>
          <_>
            <feature>
              <rects>
                <_>
                  22 0 2 1 -1.</_>
                <_>
                  22 0 1 1 2.</_></rects>
              <tilted>0</tilted></feature>
            <threshold>0.</threshold>
            <left_val>0.</left_val>
            <right_val>-1.</right_val></_></_>
        <_>
          <_>
            <feature>
              <rects>
                <_>
                  0 0 10 3 -1.</_>
                <_>
                  0 1 10 1 3.</_></rects>
              <tilted>0</tilted></feature>
            <threshold>-1.7625690088607371e-004</threshold>
            <left_val>1.</left_val>
            <right_val>-0.9999998807907105</right_val></_></_>
        <_>
          <_>
            <feature>
              <rects>
                <_>
                  15 0 9 6 -1.</_>
                <_>
                  15 3 9 3 2.</_></rects>
              <tilted>0</tilted></feature>
            <threshold>2.3612130898982286e-003</threshold>
            <left_val>-0.9337086081504822</left_val>
            <right_val>1.</right_val></_></_>
        <_>
          <_>
            <feature>
              <rects>
                <_>
                  0 0 2 4 -1.</_>
                <_>
                  0 0 1 2 2.</_>
                <_>
                  1 2 1 2 2.</_></rects>
              <tilted>0</tilted></feature>
            <threshold>2.5734780138009228e-005</threshold>
            <left_val>-1.</left_val>
            <right_val>1.0000020265579224</right_val></_></_>
        <_>
          <_>
            <feature>
              <rects>
                <_>
                  22 0 2 1 -1.</_>
                <_>
                  22 0 1 1 2.</_></rects>
              <tilted>0</tilted></feature>
            <threshold>0.</threshold>
            <left_val>0.</left_val>
            <right_val>-1.</right_val></_></_>
        <_>
          <_>
            <feature>
              <rects>
                <_>
                  0 0 2 4 -1.</_>
                <_>
                  0 1 2 2 2.</_></rects>
              <tilted>0</tilted></feature>
            <threshold>-4.6588189434260130e-005</threshold>
            <left_val>1.</left_val>
            <right_val>-1.</right_val></_></_>
        <_>
          <_>
            <feature>
              <rects>
                <_>
                  21 2 2 10 -1.</_>
                <_>
                  21 2 2 5 2.</_></rects>
              <tilted>1</tilted></feature>
            <threshold>-1.4271549298427999e-004</threshold>
            <left_val>1.</left_val>
            <right_val>-1.</right_val></_></_>
        <_>
          <_>
            <feature>
              <rects>
                <_>
                  6 1 8 2 -1.</_>
                <_>
                  6 1 4 2 2.</_></rects>
              <tilted>1</tilted></feature>
            <threshold>-2.7097729616798460e-004</threshold>
            <left_val>1.</left_val>
            <right_val>-1.</right_val></_></_>
        <_>
          <_>
            <feature>
              <rects>
                <_>
                  12 7 6 3 -1.</_>
                <_>
                  12 7 3 3 2.</_></rects>
              <tilted>0</tilted></feature>
            <threshold>-5.3556468337774277e-003</threshold>
            <left_val>1.</left_val>
            <right_val>-0.7957744002342224</right_val></_></_>
        <_>
          <_>
            <feature>
              <rects>
                <_>
                  6 7 4 5 -1.</_>
                <_>
                  8 7 2 5 2.</_></rects>
              <tilted>0</tilted></feature>
            <threshold>6.8129901774227619e-004</threshold>
            <left_val>-1.</left_val>
            <right_val>0.9533814787864685</right_val></_></_>
        <_>
          <_>
            <feature>
              <rects>
                <_>
                  8 23 15 1 -1.</_>
                <_>
                  13 23 5 1 3.</_></rects>
              <tilted>0</tilted></feature>
            <threshold>-7.7151478035375476e-004</threshold>
            <left_val>1.</left_val>
            <right_val>-0.8728864789009094</right_val></_></_>
        <_>
          <_>
            <feature>
              <rects>
                <_>
                  5 9 12 3 -1.</_>
                <_>
                  5 9 6 3 2.</_></rects>
              <tilted>1</tilted></feature>
            <threshold>-0.0150473099201918</threshold>
            <left_val>1.</left_val>
            <right_val>-0.9323186278343201</right_val></_></_>
        <_>
          <_>
            <feature>
              <rects>
                <_>
                  19 10 2 1 -1.</_>
                <_>
                  19 10 1 1 2.</_></rects>
              <tilted>0</tilted></feature>
            <threshold>4.6588189434260130e-005</threshold>
            <left_val>-0.5339608192443848</left_val>
            <right_val>0.8149284124374390</right_val></_></_>
        <_>
          <_>
            <feature>
              <rects>
                <_>
                  4 3 6 7 -1.</_>
                <_>
                  7 3 3 7 2.</_></rects>
              <tilted>0</tilted></feature>
            <threshold>3.4022668842226267e-003</threshold>
            <left_val>-0.9861661791801453</left_val>
            <right_val>1.0000009536743164</right_val></_></_>
        <_>
          <_>
            <feature>
              <rects>
                <_>
                  20 1 4 20 -1.</_>
                <_>
                  20 1 2 20 2.</_></rects>
              <tilted>0</tilted></feature>
            <threshold>4.3356018140912056e-003</threshold>
            <left_val>-1.</left_val>
            <right_val>1.</right_val></_></_>
        <_>
          <_>
            <feature>
              <rects>
                <_>
                  1 19 4 4 -1.</_>
                <_>
                  1 19 2 2 2.</_>
                <_>
                  3 21 2 2 2.</_></rects>
              <tilted>0</tilted></feature>
            <threshold>-4.4397648889571428e-004</threshold>
            <left_val>1.</left_val>
            <right_val>-1.</right_val></_></_>
        <_>
          <_>
            <feature>
              <rects>
                <_>
                  17 22 4 2 -1.</_>
                <_>
                  17 22 2 2 2.</_></rects>
              <tilted>0</tilted></feature>
            <threshold>1.5440869901794940e-004</threshold>
            <left_val>-0.8815695047378540</left_val>
            <right_val>0.4571329057216644</right_val></_></_>
        <_>
          <_>
            <feature>
              <rects>
                <_>
                  8 5 8 4 -1.</_>
                <_>
                  8 5 4 2 2.</_>
                <_>
                  12 7 4 2 2.</_></rects>
              <tilted>0</tilted></feature>
            <threshold>2.5691569317132235e-004</threshold>
            <left_val>-1.</left_val>
            <right_val>1.0000020265579224</right_val></_></_>
        <_>
          <_>
            <feature>
              <rects>
                <_>
                  19 0 5 2 -1.</_>
                <_>
                  19 1 5 1 2.</_></rects>
              <tilted>0</tilted></feature>
            <threshold>-1.2030999641865492e-003</threshold>
            <left_val>1.</left_val>
            <right_val>-0.9881818294525147</right_val></_></_>
        <_>
          <_>
            <feature>
              <rects>
                <_>
                  7 7 2 2 -1.</_>
                <_>
                  8 7 1 2 2.</_></rects>
              <tilted>0</tilted></feature>
            <threshold>1.5475960026378743e-005</threshold>
            <left_val>-0.9884424805641174</left_val>
            <right_val>1.0000009536743164</right_val></_></_>
        <_>
          <_>
            <feature>
              <rects>
                <_>
                  21 0 3 6 -1.</_>
                <_>
                  22 2 1 2 9.</_></rects>
              <tilted>0</tilted></feature>
            <threshold>-3.2783398637548089e-004</threshold>
            <left_val>1.</left_val>
            <right_val>-0.9796723723411560</right_val></_></_>
        <_>
          <_>
            <feature>
              <rects>
                <_>
                  0 0 2 1 -1.</_>
                <_>
                  1 0 1 1 2.</_></rects>
              <tilted>0</tilted></feature>
            <threshold>0.</threshold>
            <left_val>0.</left_val>
            <right_val>-1.</right_val></_></_>
        <_>
          <_>
            <feature>
              <rects>
                <_>
                  13 5 7 2 -1.</_>
                <_>
                  13 5 7 1 2.</_></rects>
              <tilted>1</tilted></feature>
            <threshold>-1.5762810653541237e-004</threshold>
            <left_val>1.</left_val>
            <right_val>-0.9464311003684998</right_val></_></_>
        <_>
          <_>
            <feature>
              <rects>
                <_>
                  9 17 1 6 -1.</_>
                <_>
                  9 17 1 3 2.</_></rects>
              <tilted>1</tilted></feature>
            <threshold>2.6271349634043872e-004</threshold>
            <left_val>-1.</left_val>
            <right_val>0.9395210146903992</right_val></_></_>
        <_>
          <_>
            <feature>
              <rects>
                <_>
                  15 6 9 16 -1.</_>
                <_>
                  18 6 3 16 3.</_></rects>
              <tilted>0</tilted></feature>
            <threshold>-1.7854949692264199e-003</threshold>
            <left_val>0.2798947989940643</left_val>
            <right_val>-0.9723895788192749</right_val></_></_>
        <_>
          <_>
            <feature>
              <rects>
                <_>
                  0 0 3 21 -1.</_>
                <_>
                  1 0 1 21 3.</_></rects>
              <tilted>0</tilted></feature>
            <threshold>1.2456940021365881e-004</threshold>
            <left_val>-1.</left_val>
            <right_val>1.0000029802322388</right_val></_></_>
        <_>
          <_>
            <feature>
              <rects>
                <_>
                  22 0 2 1 -1.</_>
                <_>
                  22 0 1 1 2.</_></rects>
              <tilted>0</tilted></feature>
            <threshold>0.</threshold>
            <left_val>0.</left_val>
            <right_val>-1.</right_val></_></_>
        <_>
          <_>
            <feature>
              <rects>
                <_>
                  0 0 3 2 -1.</_>
                <_>
                  0 1 3 1 2.</_></rects>
              <tilted>0</tilted></feature>
            <threshold>3.2830419513629749e-005</threshold>
            <left_val>-1.</left_val>
            <right_val>1.0000020265579224</right_val></_></_>
        <_>
          <_>
            <feature>
              <rects>
                <_>
                  22 0 2 1 -1.</_>
                <_>
                  22 0 1 1 2.</_></rects>
              <tilted>0</tilted></feature>
            <threshold>0.</threshold>
            <left_val>0.</left_val>
            <right_val>-1.</right_val></_></_>
        <_>
          <_>
            <feature>
              <rects>
                <_>
                  0 0 2 1 -1.</_>
                <_>
                  1 0 1 1 2.</_></rects>
              <tilted>0</tilted></feature>
            <threshold>1.5475960026378743e-005</threshold>
            <left_val>-1.</left_val>
            <right_val>1.</right_val></_></_>
        <_>
          <_>
            <feature>
              <rects>
                <_>
                  22 0 2 1 -1.</_>
                <_>
                  22 0 1 1 2.</_></rects>
              <tilted>0</tilted></feature>
            <threshold>0.</threshold>
            <left_val>0.</left_val>
            <right_val>-1.</right_val></_></_>
        <_>
          <_>
            <feature>
              <rects>
                <_>
                  0 0 3 12 -1.</_>
                <_>
                  1 4 1 4 9.</_></rects>
              <tilted>0</tilted></feature>
            <threshold>-4.3804518645629287e-004</threshold>
            <left_val>1.</left_val>
            <right_val>-1.</right_val></_></_>
        <_>
          <_>
            <feature>
              <rects>
                <_>
                  22 0 2 10 -1.</_>
                <_>
                  23 0 1 5 2.</_>
                <_>
                  22 5 1 5 2.</_></rects>
              <tilted>0</tilted></feature>
            <threshold>3.2040061341831461e-005</threshold>
            <left_val>-0.8573896288871765</left_val>
            <right_val>1.</right_val></_></_>
        <_>
          <_>
            <feature>
              <rects>
                <_>
                  0 0 6 20 -1.</_>
                <_>
                  0 0 3 10 2.</_>
                <_>
                  3 10 3 10 2.</_></rects>
              <tilted>0</tilted></feature>
            <threshold>7.1213638875633478e-004</threshold>
            <left_val>-1.</left_val>
            <right_val>1.</right_val></_></_>
        <_>
          <_>
            <feature>
              <rects>
                <_>
                  20 0 4 24 -1.</_>
                <_>
                  20 0 2 24 2.</_></rects>
              <tilted>0</tilted></feature>
            <threshold>0.0105848098173738</threshold>
            <left_val>-0.9893636107444763</left_val>
            <right_val>1.</right_val></_></_>
        <_>
          <_>
            <feature>
              <rects>
                <_>
                  0 7 9 3 -1.</_>
                <_>
                  0 8 9 1 3.</_></rects>
              <tilted>0</tilted></feature>
            <threshold>-9.0781410108320415e-005</threshold>
            <left_val>1.</left_val>
            <right_val>-1.</right_val></_></_>
        <_>
          <_>
            <feature>
              <rects>
                <_>
                  10 13 7 9 -1.</_>
                <_>
                  10 16 7 3 3.</_></rects>
              <tilted>0</tilted></feature>
            <threshold>4.7070980072021484e-003</threshold>
            <left_val>-0.7775760293006897</left_val>
            <right_val>1.</right_val></_></_>
        <_>
          <_>
            <feature>
              <rects>
                <_>
                  0 1 20 7 -1.</_>
                <_>
                  10 1 10 7 2.</_></rects>
              <tilted>0</tilted></feature>
            <threshold>0.0134173203259707</threshold>
            <left_val>-1.</left_val>
            <right_val>1.0000009536743164</right_val></_></_>
        <_>
          <_>
            <feature>
              <rects>
                <_>
                  22 0 2 1 -1.</_>
                <_>
                  22 0 1 1 2.</_></rects>
              <tilted>0</tilted></feature>
            <threshold>0.</threshold>
            <left_val>0.</left_val>
            <right_val>-1.</right_val></_></_>
        <_>
          <_>
            <feature>
              <rects>
                <_>
                  0 0 3 17 -1.</_>
                <_>
                  1 0 1 17 3.</_></rects>
